digraph Tree {
node [shape=box, style="filled, rounded", color="black", fontname=helvetica] ;
edge [fontname=helvetica] ;
0 [label="Concurrent_open_cases <= 23.0\nmse = 11248.0446\nsamples = 60\nvalue = 79.0123", fillcolor="#e581391e"] ;
1 [label="Seconds_left_Qtr <= 1540170.5\nmse = 9111.0737\nsamples = 2\nvalue = 578.8061", fillcolor="#e58139db"] ;
0 -> 1 [labeldistance=2.5, labelangle=45, headlabel="True"] ;
2 [label="mse = 0.0\nsamples = 1\nvalue = 674.2581", fillcolor="#e58139ff"] ;
1 -> 2 ;
3 [label="mse = -0.0\nsamples = 1\nvalue = 483.3542", fillcolor="#e58139b7"] ;
1 -> 3 ;
4 [label="Concurrent_open_cases <= 274.5\nmse = 5490.4538\nsamples = 58\nvalue = 67.6534", fillcolor="#e5813919"] ;
0 -> 4 [labeldistance=2.5, labelangle=-45, headlabel="False"] ;
5 [label="Cases_created_within_past_8_hours <= 81.5\nmse = 7973.1218\nsamples = 14\nvalue = 178.3144", fillcolor="#e5813943"] ;
4 -> 5 ;
6 [label="Seconds_left_Month <= 2210018.0\nmse = 2136.4138\nsamples = 6\nvalue = 71.6197", fillcolor="#e581391b"] ;
5 -> 6 ;
7 [label="Seconds_left_Day <= 108924.0\nmse = 651.0045\nsamples = 3\nvalue = 29.7136", fillcolor="#e581390b"] ;
6 -> 7 ;
8 [label="Seconds_left_Month <= 1978917.5\nmse = 160.9938\nsamples = 2\nvalue = 13.2261", fillcolor="#e5813905"] ;
7 -> 8 ;
9 [label="mse = 0.0\nsamples = 1\nvalue = 25.9144", fillcolor="#e581390a"] ;
8 -> 9 ;
10 [label="mse = 0.0\nsamples = 1\nvalue = 0.5378", fillcolor="#e5813900"] ;
8 -> 10 ;
11 [label="mse = 0.0\nsamples = 1\nvalue = 62.6886", fillcolor="#e5813918"] ;
7 -> 11 ;
12 [label="Cases_created_within_past_8_hours <= 54.0\nmse = 109.5865\nsamples = 3\nvalue = 113.5257", fillcolor="#e581392b"] ;
6 -> 12 ;
13 [label="mse = 0.0\nsamples = 1\nvalue = 99.6108", fillcolor="#e5813925"] ;
12 -> 13 ;
14 [label="Concurrent_open_cases <= 155.0\nmse = 19.1613\nsamples = 2\nvalue = 120.4832", fillcolor="#e581392d"] ;
12 -> 14 ;
15 [label="mse = 0.0\nsamples = 1\nvalue = 116.1058", fillcolor="#e581392c"] ;
14 -> 15 ;
16 [label="mse = -0.0\nsamples = 1\nvalue = 124.8606", fillcolor="#e581392f"] ;
14 -> 16 ;
17 [label="Created_on_Weekend <= 0.5\nmse = 2353.6506\nsamples = 8\nvalue = 231.6618", fillcolor="#e5813957"] ;
5 -> 17 ;
18 [label="Seconds_left_Day <= 46680.5\nmse = 1049.6432\nsamples = 7\nvalue = 242.9089", fillcolor="#e581395c"] ;
17 -> 18 ;
19 [label="Seconds_left_Day <= 22618.0\nmse = 630.6145\nsamples = 6\nvalue = 249.8108", fillcolor="#e581395e"] ;
18 -> 19 ;
20 [label="Concurrent_open_cases <= 201.0\nmse = 541.8629\nsamples = 3\nvalue = 227.2015", fillcolor="#e5813956"] ;
19 -> 20 ;
21 [label="Seconds_left_Day <= 15216.5\nmse = 146.2905\nsamples = 2\nvalue = 215.1994", fillcolor="#e5813951"] ;
20 -> 21 ;
22 [label="mse = 0.0\nsamples = 1\nvalue = 198.0944", fillcolor="#e581394b"] ;
21 -> 22 ;
23 [label="mse = -0.0\nsamples = 1\nvalue = 223.7519", fillcolor="#e5813954"] ;
21 -> 23 ;
24 [label="mse = 0.0\nsamples = 1\nvalue = 263.2075", fillcolor="#e5813963"] ;
20 -> 24 ;
25 [label="Seconds_left_Qtr <= 3786797.5\nmse = 121.8031\nsamples = 3\nvalue = 264.8837", fillcolor="#e5813964"] ;
19 -> 25 ;
26 [label="Concurrent_open_cases <= 169.5\nmse = 6.5769\nsamples = 2\nvalue = 260.0603", fillcolor="#e5813962"] ;
25 -> 26 ;
27 [label="mse = 0.0\nsamples = 1\nvalue = 258.7781", fillcolor="#e5813962"] ;
26 -> 27 ;
28 [label="mse = -0.0\nsamples = 1\nvalue = 265.1894", fillcolor="#e5813964"] ;
26 -> 28 ;
29 [label="mse = -0.0\nsamples = 1\nvalue = 289.0003", fillcolor="#e581396d"] ;
25 -> 29 ;
30 [label="mse = 0.0\nsamples = 1\nvalue = 173.8903", fillcolor="#e5813942"] ;
18 -> 30 ;
31 [label="mse = -0.0\nsamples = 1\nvalue = 107.9433", fillcolor="#e5813929"] ;
17 -> 31 ;
32 [label="Concurrent_open_cases <= 568.0\nmse = 893.3897\nsamples = 44\nvalue = 39.1977", fillcolor="#e581390f"] ;
4 -> 32 ;
33 [label="Seconds_left_Qtr <= 2119938.0\nmse = 1062.4659\nsamples = 18\nvalue = 55.5466", fillcolor="#e5813915"] ;
32 -> 33 ;
34 [label="Seconds_left_Day <= 36913.0\nmse = 617.934\nsamples = 7\nvalue = 79.8589", fillcolor="#e581391e"] ;
33 -> 34 ;
35 [label="Seconds_left_Qtr <= 809359.5\nmse = 7.1044\nsamples = 2\nvalue = 119.8056", fillcolor="#e581392d"] ;
34 -> 35 ;
36 [label="mse = 0.0\nsamples = 1\nvalue = 116.0361", fillcolor="#e581392c"] ;
35 -> 36 ;
37 [label="mse = -0.0\nsamples = 1\nvalue = 121.6903", fillcolor="#e581392e"] ;
35 -> 37 ;
38 [label="Seconds_left_Day <= 136382.0\nmse = 178.8451\nsamples = 5\nvalue = 67.8749", fillcolor="#e5813919"] ;
34 -> 38 ;
39 [label="Seconds_left_Month <= 351433.0\nmse = 96.9784\nsamples = 4\nvalue = 64.6852", fillcolor="#e5813918"] ;
38 -> 39 ;
40 [label="Seconds_left_Day <= 47523.0\nmse = 6.612\nsamples = 2\nvalue = 71.3051", fillcolor="#e581391b"] ;
39 -> 40 ;
41 [label="mse = 0.0\nsamples = 1\nvalue = 67.6686", fillcolor="#e5813919"] ;
40 -> 41 ;
42 [label="mse = 0.0\nsamples = 1\nvalue = 73.1233", fillcolor="#e581391b"] ;
40 -> 42 ;
43 [label="Seconds_left_Qtr <= 709355.0\nmse = 14.7746\nsamples = 2\nvalue = 51.4455", fillcolor="#e5813913"] ;
39 -> 43 ;
44 [label="mse = 0.0\nsamples = 1\nvalue = 48.7275", fillcolor="#e5813912"] ;
43 -> 44 ;
45 [label="mse = 0.0\nsamples = 1\nvalue = 56.8814", fillcolor="#e5813915"] ;
43 -> 45 ;
46 [label="mse = -0.0\nsamples = 1\nvalue = 96.5817", fillcolor="#e5813924"] ;
38 -> 46 ;
47 [label="Cases_created_within_past_8_hours <= 47.5\nmse = 685.4762\nsamples = 11\nvalue = 38.9118", fillcolor="#e581390f"] ;
33 -> 47 ;
48 [label="Seconds_left_Day <= 140123.0\nmse = 165.2905\nsamples = 3\nvalue = 65.9294", fillcolor="#e5813919"] ;
47 -> 48 ;
49 [label="Concurrent_open_cases <= 298.5\nmse = 4.7633\nsamples = 2\nvalue = 72.2831", fillcolor="#e581391b"] ;
48 -> 49 ;
50 [label="mse = 0.0\nsamples = 1\nvalue = 71.0231", fillcolor="#e581391b"] ;
49 -> 50 ;
51 [label="mse = 0.0\nsamples = 1\nvalue = 76.0633", fillcolor="#e581391d"] ;
49 -> 51 ;
52 [label="mse = -0.0\nsamples = 1\nvalue = 40.5144", fillcolor="#e581390f"] ;
48 -> 52 ;
53 [label="Concurrent_open_cases <= 470.0\nmse = 517.4552\nsamples = 8\nvalue = 29.2627", fillcolor="#e581390b"] ;
47 -> 53 ;
54 [label="Seconds_left_Month <= 340892.5\nmse = 135.7684\nsamples = 5\nvalue = 12.1429", fillcolor="#e5813904"] ;
53 -> 54 ;
55 [label="Seconds_left_Day <= 46206.5\nmse = 1.1603\nsamples = 2\nvalue = 27.1481", fillcolor="#e581390a"] ;
54 -> 55 ;
56 [label="mse = 0.0\nsamples = 1\nvalue = 28.6714", fillcolor="#e581390b"] ;
55 -> 56 ;
57 [label="mse = 0.0\nsamples = 1\nvalue = 26.3864", fillcolor="#e581390a"] ;
55 -> 57 ;
58 [label="Seconds_left_Day <= 62315.5\nmse = 0.3852\nsamples = 3\nvalue = 3.1398", fillcolor="#e5813901"] ;
54 -> 58 ;
59 [label="Seconds_left_Month <= 1950637.5\nmse = 0.0154\nsamples = 2\nvalue = 2.6392", fillcolor="#e5813901"] ;
58 -> 59 ;
60 [label="mse = 0.0\nsamples = 1\nvalue = 2.7269", fillcolor="#e5813901"] ;
59 -> 60 ;
61 [label="mse = -0.0\nsamples = 1\nvalue = 2.4636", fillcolor="#e5813901"] ;
59 -> 61 ;
62 [label="mse = 0.0\nsamples = 1\nvalue = 3.8908", fillcolor="#e5813901"] ;
58 -> 62 ;
63 [label="Seconds_left_Qtr <= 4433783.0\nmse = 114.5449\nsamples = 3\nvalue = 52.0891", fillcolor="#e5813914"] ;
53 -> 63 ;
64 [label="mse = 0.0\nsamples = 1\nvalue = 75.9128", fillcolor="#e581391d"] ;
63 -> 64 ;
65 [label="Seconds_left_Month <= 654392.0\nmse = 1.2373\nsamples = 2\nvalue = 47.3243", fillcolor="#e5813912"] ;
63 -> 65 ;
66 [label="mse = -0.0\nsamples = 1\nvalue = 48.6867", fillcolor="#e5813912"] ;
65 -> 66 ;
67 [label="mse = 0.0\nsamples = 1\nvalue = 46.4161", fillcolor="#e5813911"] ;
65 -> 67 ;
68 [label="Concurrent_open_cases <= 788.0\nmse = 336.3831\nsamples = 26\nvalue = 25.4302", fillcolor="#e5813909"] ;
32 -> 68 ;
69 [label="Concurrent_open_cases <= 718.0\nmse = 320.5655\nsamples = 16\nvalue = 35.3637", fillcolor="#e581390d"] ;
68 -> 69 ;
70 [label="Seconds_left_Month <= 584587.5\nmse = 110.9773\nsamples = 13\nvalue = 28.4638", fillcolor="#e581390b"] ;
69 -> 70 ;
71 [label="Cases_created_within_past_8_hours <= 190.5\nmse = 37.453\nsamples = 7\nvalue = 21.5802", fillcolor="#e5813908"] ;
70 -> 71 ;
72 [label="Seconds_left_Day <= 28169.0\nmse = 17.0196\nsamples = 5\nvalue = 24.8884", fillcolor="#e5813909"] ;
71 -> 72 ;
73 [label="Created_on_Weekend <= 0.5\nmse = 5.2884\nsamples = 3\nvalue = 21.649", fillcolor="#e5813908"] ;
72 -> 73 ;
74 [label="Seconds_left_Month <= 324118.0\nmse = 0.2737\nsamples = 2\nvalue = 22.9506", fillcolor="#e5813908"] ;
73 -> 74 ;
75 [label="mse = 0.0\nsamples = 1\nvalue = 23.3206", fillcolor="#e5813909"] ;
74 -> 75 ;
76 [label="mse = 0.0\nsamples = 1\nvalue = 22.2108", fillcolor="#e5813908"] ;
74 -> 76 ;
77 [label="mse = -0.0\nsamples = 1\nvalue = 17.7439", fillcolor="#e5813907"] ;
73 -> 77 ;
78 [label="Seconds_left_Qtr <= 2914277.5\nmse = 0.013\nsamples = 2\nvalue = 29.2077", fillcolor="#e581390b"] ;
72 -> 78 ;
79 [label="mse = 0.0\nsamples = 1\nvalue = 29.0464", fillcolor="#e581390b"] ;
78 -> 79 ;
80 [label="mse = 0.0\nsamples = 1\nvalue = 29.2883", fillcolor="#e581390b"] ;
78 -> 80 ;
81 [label="Concurrent_open_cases <= 574.0\nmse = 0.01\nsamples = 2\nvalue = 13.8611", fillcolor="#e5813905"] ;
71 -> 81 ;
82 [label="mse = 0.0\nsamples = 1\nvalue = 14.0022", fillcolor="#e5813905"] ;
81 -> 82 ;
83 [label="mse = 0.0\nsamples = 1\nvalue = 13.7906", fillcolor="#e5813905"] ;
81 -> 83 ;
84 [label="Seconds_left_Month <= 2072629.0\nmse = 69.6175\nsamples = 6\nvalue = 37.0682", fillcolor="#e581390e"] ;
70 -> 84 ;
85 [label="Seconds_left_Month <= 944238.0\nmse = 31.4373\nsamples = 4\nvalue = 40.9367", fillcolor="#e581390f"] ;
84 -> 85 ;
86 [label="Cases_created_within_past_8_hours <= 100.5\nmse = 1.7325\nsamples = 2\nvalue = 37.3895", fillcolor="#e581390e"] ;
85 -> 86 ;
87 [label="mse = 0.0\nsamples = 1\nvalue = 35.1097", fillcolor="#e581390d"] ;
86 -> 87 ;
88 [label="mse = 0.0\nsamples = 1\nvalue = 38.1494", fillcolor="#e581390e"] ;
86 -> 88 ;
89 [label="Created_on_Weekend <= 0.5\nmse = 15.3512\nsamples = 2\nvalue = 48.0311", fillcolor="#e5813912"] ;
85 -> 89 ;
90 [label="mse = 0.0\nsamples = 1\nvalue = 44.1131", fillcolor="#e5813910"] ;
89 -> 90 ;
91 [label="mse = 0.0\nsamples = 1\nvalue = 51.9492", fillcolor="#e5813913"] ;
89 -> 91 ;
92 [label="Seconds_left_Day <= 60194.5\nmse = 4.5731\nsamples = 2\nvalue = 25.4626", fillcolor="#e5813909"] ;
84 -> 92 ;
93 [label="mse = 0.0\nsamples = 1\nvalue = 23.3242", fillcolor="#e5813909"] ;
92 -> 93 ;
94 [label="mse = 0.0\nsamples = 1\nvalue = 27.6011", fillcolor="#e581390a"] ;
92 -> 94 ;
95 [label="Seconds_left_Day <= 217917.0\nmse = 85.3787\nsamples = 3\nvalue = 66.4135", fillcolor="#e5813919"] ;
69 -> 95 ;
96 [label="Seconds_left_Month <= 696426.0\nmse = 4.6135\nsamples = 2\nvalue = 71.6391", fillcolor="#e581391b"] ;
95 -> 96 ;
97 [label="mse = 0.0\nsamples = 1\nvalue = 70.1203", fillcolor="#e581391a"] ;
96 -> 97 ;
98 [label="mse = -0.0\nsamples = 1\nvalue = 74.6767", fillcolor="#e581391c"] ;
96 -> 98 ;
99 [label="mse = -0.0\nsamples = 1\nvalue = 50.7369", fillcolor="#e5813913"] ;
95 -> 99 ;
100 [label="Seconds_left_Qtr <= 746872.5\nmse = 35.8963\nsamples = 10\nvalue = 11.7716", fillcolor="#e5813904"] ;
68 -> 100 ;
101 [label="Cases_created_within_past_8_hours <= 280.0\nmse = 15.7534\nsamples = 6\nvalue = 8.3355", fillcolor="#e5813903"] ;
100 -> 101 ;
102 [label="Seconds_left_Month <= 451144.5\nmse = 3.7012\nsamples = 5\nvalue = 5.0253", fillcolor="#e5813902"] ;
101 -> 102 ;
103 [label="Cases_created_within_past_8_hours <= 136.0\nmse = 1.0352\nsamples = 4\nvalue = 4.1778", fillcolor="#e5813901"] ;
102 -> 103 ;
104 [label="mse = 0.0\nsamples = 1\nvalue = 5.7578", fillcolor="#e5813902"] ;
103 -> 104 ;
105 [label="Seconds_left_Month <= 207811.5\nmse = 0.2707\nsamples = 3\nvalue = 3.6511", fillcolor="#e5813901"] ;
103 -> 105 ;
106 [label="Seconds_left_Day <= 124060.0\nmse = 0.0089\nsamples = 2\nvalue = 4.015", fillcolor="#e5813901"] ;
105 -> 106 ;
107 [label="mse = 0.0\nsamples = 1\nvalue = 3.9208", fillcolor="#e5813901"] ;
106 -> 107 ;
108 [label="mse = -0.0\nsamples = 1\nvalue = 4.1092", fillcolor="#e5813901"] ;
106 -> 108 ;
109 [label="mse = -0.0\nsamples = 1\nvalue = 2.9233", fillcolor="#e5813901"] ;
105 -> 109 ;
110 [label="mse = 0.0\nsamples = 1\nvalue = 8.4153", fillcolor="#e5813903"] ;
102 -> 110 ;
111 [label="mse = 0.0\nsamples = 1\nvalue = 12.4733", fillcolor="#e5813905"] ;
101 -> 111 ;
112 [label="Concurrent_open_cases <= 860.5\nmse = 27.0978\nsamples = 4\nvalue = 16.1894", fillcolor="#e5813906"] ;
100 -> 112 ;
113 [label="Seconds_left_Day <= 61577.0\nmse = 11.1767\nsamples = 3\nvalue = 17.8981", fillcolor="#e5813907"] ;
112 -> 113 ;
114 [label="Seconds_left_Qtr <= 3213250.5\nmse = 1.2628\nsamples = 2\nvalue = 15.6249", fillcolor="#e5813906"] ;
113 -> 114 ;
115 [label="mse = 0.0\nsamples = 1\nvalue = 16.7486", fillcolor="#e5813906"] ;
114 -> 115 ;
116 [label="mse = 0.0\nsamples = 1\nvalue = 14.5011", fillcolor="#e5813905"] ;
114 -> 116 ;
117 [label="mse = 0.0\nsamples = 1\nvalue = 22.4444", fillcolor="#e5813908"] ;
113 -> 117 ;
118 [label="mse = 0.0\nsamples = 1\nvalue = 5.9372", fillcolor="#e5813902"] ;
112 -> 118 ;
}