digraph Tree {
node [shape=box, style="filled, rounded", color="black", fontname=helvetica] ;
edge [fontname=helvetica] ;
0 [label="Concurrent_open_cases <= 132.5\nmse = 16581.1523\nsamples = 15991\nvalue = 99.3258", fillcolor="#e5813923"] ;
1 [label="Concurrent_open_cases <= 44.5\nmse = 31280.4432\nsamples = 2243\nvalue = 327.7849", fillcolor="#e5813984"] ;
0 -> 1 [labeldistance=2.5, labelangle=45, headlabel="True"] ;
5 [label="Concurrent_open_cases <= 9.5\nmse = 33970.7314\nsamples = 822\nvalue = 463.5632", fillcolor="#e58139bd"] ;
1 -> 5 ;
7 [label="mse = 27582.4627\nsamples = 234\nvalue = 618.5289", fillcolor="#e58139ff"] ;
5 -> 7 ;
8 [label="Seconds_left_Qtr <= 6803198.5\nmse = 23659.9983\nsamples = 588\nvalue = 404.051", fillcolor="#e58139a4"] ;
5 -> 8 ;
15 [label="Seconds_left_Qtr <= 3865799.5\nmse = 23444.9796\nsamples = 514\nvalue = 382.7798", fillcolor="#e581399b"] ;
8 -> 15 ;
17 [label="mse = 6840.9975\nsamples = 279\nvalue = 452.272", fillcolor="#e58139b8"] ;
15 -> 17 ;
18 [label="mse = 30621.298\nsamples = 235\nvalue = 299.16", fillcolor="#e5813977"] ;
15 -> 18 ;
16 [label="mse = 3510.8251\nsamples = 74\nvalue = 540.5271", fillcolor="#e58139de"] ;
8 -> 16 ;
6 [label="Concurrent_open_cases <= 71.5\nmse = 13366.817\nsamples = 1421\nvalue = 250.7719", fillcolor="#e5813963"] ;
1 -> 6 ;
13 [label="mse = 16229.8021\nsamples = 440\nvalue = 313.9677", fillcolor="#e581397e"] ;
6 -> 13 ;
14 [label="mse = 9625.5589\nsamples = 981\nvalue = 223.2641", fillcolor="#e5813957"] ;
6 -> 14 ;
2 [label="Concurrent_open_cases <= 370.5\nmse = 4346.9325\nsamples = 13748\nvalue = 62.2396", fillcolor="#e5813913"] ;
0 -> 2 [labeldistance=2.5, labelangle=-45, headlabel="False"] ;
3 [label="Concurrent_open_cases <= 268.5\nmse = 5593.0717\nsamples = 4261\nvalue = 124.2538", fillcolor="#e581392d"] ;
2 -> 3 ;
9 [label="Seconds_left_Qtr <= 2627846.5\nmse = 5674.9288\nsamples = 2312\nvalue = 152.9951", fillcolor="#e5813939"] ;
3 -> 9 ;
19 [label="mse = 3560.874\nsamples = 927\nvalue = 180.0068", fillcolor="#e5813945"] ;
9 -> 19 ;
20 [label="Seconds_left_Qtr <= 6639021.0\nmse = 6275.1474\nsamples = 1385\nvalue = 134.885", fillcolor="#e5813932"] ;
9 -> 20 ;
21 [label="mse = 4536.4749\nsamples = 1130\nvalue = 118.6345", fillcolor="#e581392b"] ;
20 -> 21 ;
22 [label="mse = 7611.5262\nsamples = 255\nvalue = 207.1276", fillcolor="#e5813950"] ;
20 -> 22 ;
10 [label="mse = 3355.8186\nsamples = 1949\nvalue = 90.1814", fillcolor="#e581391f"] ;
3 -> 10 ;
4 [label="Concurrent_open_cases <= 600.5\nmse = 1278.714\nsamples = 9487\nvalue = 34.347", fillcolor="#e5813907"] ;
2 -> 4 ;
11 [label="mse = 1603.9756\nsamples = 4031\nvalue = 57.2731", fillcolor="#e5813911"] ;
4 -> 11 ;
12 [label="mse = 381.994\nsamples = 5456\nvalue = 17.6749", fillcolor="#e5813900"] ;
4 -> 12 ;
}